digraph Tree {
node [shape=box, style="filled, rounded", color="black", fontname=helvetica] ;
edge [fontname=helvetica] ;
0 [label="petal length (cm) <= 2.35\ngini = 0.67\nsamples = 96\nvalue = [48, 48, 54]\nclass = virginica", fillcolor="#f8f3fd"] ;
1 [label="gini = 0.0\nsamples = 30\nvalue = [48, 0, 0]\nclass = setosa", fillcolor="#e58139"] ;
0 -> 1 [labeldistance=2.5, labelangle=45, headlabel="True"] ;
2 [label="petal width (cm) <= 1.65\ngini = 0.5\nsamples = 66\nvalue = [0, 48, 54]\nclass = virginica", fillcolor="#f1e9fc"] ;
0 -> 2 [labeldistance=2.5, labelangle=-45, headlabel="False"] ;
3 [label="petal length (cm) <= 5.35\ngini = 0.14\nsamples = 33\nvalue = [0, 47, 4]\nclass = versicolor", fillcolor="#4ae78c"] ;
2 -> 3 ;
4 [label="sepal length (cm) <= 6.25\ngini = 0.04\nsamples = 31\nvalue = [0, 47, 1]\nclass = versicolor", fillcolor="#3de684"] ;
3 -> 4 ;
5 [label="gini = 0.0\nsamples = 26\nvalue = [0, 40, 0]\nclass = versicolor", fillcolor="#39e581"] ;
4 -> 5 ;
6 [label="sepal width (cm) <= 2.9\ngini = 0.22\nsamples = 5\nvalue = [0, 7, 1]\nclass = versicolor", fillcolor="#55e993"] ;
4 -> 6 ;
7 [label="gini = 0.0\nsamples = 1\nvalue = [0, 0, 1]\nclass = virginica", fillcolor="#8139e5"] ;
6 -> 7 ;
8 [label="gini = 0.0\nsamples = 4\nvalue = [0, 7, 0]\nclass = versicolor", fillcolor="#39e581"] ;
6 -> 8 ;
9 [label="gini = 0.0\nsamples = 2\nvalue = [0, 0, 3]\nclass = virginica", fillcolor="#8139e5"] ;
3 -> 9 ;
10 [label="petal length (cm) <= 4.85\ngini = 0.04\nsamples = 33\nvalue = [0, 1, 50]\nclass = virginica", fillcolor="#843de6"] ;
2 -> 10 ;
11 [label="sepal width (cm) <= 3.1\ngini = 0.38\nsamples = 4\nvalue = [0, 1, 3]\nclass = virginica", fillcolor="#ab7bee"] ;
10 -> 11 ;
12 [label="gini = 0.0\nsamples = 3\nvalue = [0, 0, 3]\nclass = virginica", fillcolor="#8139e5"] ;
11 -> 12 ;
13 [label="gini = 0.0\nsamples = 1\nvalue = [0, 1, 0]\nclass = versicolor", fillcolor="#39e581"] ;
11 -> 13 ;
14 [label="gini = 0.0\nsamples = 29\nvalue = [0, 0, 47]\nclass = virginica", fillcolor="#8139e5"] ;
10 -> 14 ;
}